{
  "run_id": "current_leading_failure_case_extraction_20260418",
  "source_multistep_run": "outputs/branch_label_bruteforce_learning/multistep_branch_utility_target_eval_20260417",
  "source_targets_root": "outputs/branch_label_bruteforce_targets/multistep_branch_utility_target_20260417",
  "seeds": [
    11,
    29,
    47
  ],
  "feature_set": "v3",
  "near_tie_margin": 0.03,
  "leading_mode_selection_rule": "argmax accepted_accuracy_mean among multistep modes in aggregate_comparison_summary.json",
  "leading_mode": "multistep_branch_utility_target_k3",
  "selection_rule": "Rank all test states with failures first (method choice != oracle best), then by oracle_gap_if_choose_k3 descending, then by smallest k3 predicted top-2 margin. Select top 4; if fewer than 4 strict failures exist, include boundary-control states with smallest predicted margin.",
  "selection_limit": 4,
  "total_test_states_evaluated": 8,
  "total_mismatches": 3,
  "selected_failure_count": 3,
  "selected_boundary_control_count": 1,
  "fit_status": [
    {
      "seed": 11,
      "mode": "multistep_branch_utility_target_k3",
      "status": "ok",
      "target_field": "multistep_branch_utility_target",
      "training_rows": 76,
      "weights": [
        0.06078439899681006,
        0.20388937908734256,
        0.030320407986982073,
        -0.04276678487039288,
        0.026058883148047867,
        0.004514335795660432,
        0.0,
        -0.08417902336317085,
        0.008481582115928163,
        0.1191886833069269,
        0.0,
        0.0,
        0.0,
        0.12067688172318622,
        -0.08569565850507961,
        0.2880684024505128,
        -0.03478978757703858,
        0.019285877506687688,
        -0.017761699977380203,
        -0.11931678590967253,
        0.00975348801566683,
        0.010550890175304459,
        -0.0141805732066831,
        0.055847991865304446,
        -0.048850941769883464,
        -0.02571936064225307,
        0.004514335795660229,
        -0.011834975758856833,
        0.013048338996017213,
        -0.1350277149885483,
        0.0,
        0.2038893790873423,
        0.034328620856443635,
        -0.050585191050213266,
        0.11837092866765611,
        0.13610364146989995,
        0.006527573458836538,
        -0.11931678590967251,
        -0.017379748508636224,
        0.034871422856697656,
        -0.002748701293086417,
        -0.13216960433178526,
        -0.056009677780987234,
        0.15239364158022942,
        0.002029025578218012,
        -0.039473653766861905,
        0.0425149095900349,
        -0.01193001979800158,
        0.0,
        0.004508673782608272,
        -0.07291175332745445,
        0.22117532771926177,
        0.030710616638505123,
        0.09208521506033483
      ],
      "intercept": 0.3985552669611022
    },
    {
      "seed": 11,
      "mode": "multistep_branch_utility_target_k1",
      "status": "ok",
      "target_field": "multistep_branch_utility_target",
      "training_rows": 76,
      "weights": [
        0.06618543057015265,
        0.19563011940474198,
        0.017026344337350056,
        -0.03746082109176413,
        0.03207488575987579,
        0.016324278957757926,
        0.0,
        -0.07048316344090796,
        0.004041461336193352,
        0.10960884683406004,
        0.0,
        0.0,
        0.0,
        0.048511058355456264,
        -0.02966221608106792,
        0.2661132828456497,
        -0.011956311085102969,
        0.054421486231642544,
        -0.038948031744186824,
        -0.10779835078214106,
        0.03589636178935964,
        -0.001959004784783975,
        0.003160697314380056,
        0.061849852360323775,
        -0.05792595993176622,
        -0.00587152798599388,
        0.016324278957757832,
        -0.005622849671599745,
        0.01417288567201263,
        -0.10558938745999714,
        0.0,
        0.19563011940474181,
        0.0434175685679116,
        -0.02011559254096116,
        0.09190605344958387,
        0.12383965849611787,
        -0.001173123843184762,
        -0.107798350782141,
        0.04525598685216782,
        0.024369727221681965,
        0.04074689462873021,
        -0.15055923409832075,
        0.008839179577729634,
        0.08264007010899356,
        0.01260740015173288,
        -0.02087957080188997,
        0.03744930868385554,
        0.014344638575399046,
        0.0,
        0.007637757906048452,
        -0.03279350816974113,
        0.1600023517163235,
        0.035625980257633576,
        0.08468990070371611
      ],
      "intercept": 0.05141283513553552
    },
    {
      "seed": 29,
      "mode": "multistep_branch_utility_target_k3",
      "status": "ok",
      "target_field": "multistep_branch_utility_target",
      "training_rows": 82,
      "weights": [
        0.07219540093469536,
        0.22285644460176116,
        0.034587762594218835,
        -0.04909201536940424,
        0.020742115869602288,
        -0.009121723860857005,
        0.0,
        -0.08497825891272279,
        0.005651298856423102,
        0.13652616359835243,
        0.0,
        0.0,
        0.0,
        0.08267930599815419,
        -0.0710259570681057,
        0.307834703514483,
        -0.020995277706317386,
        0.0034187393863783343,
        -0.006217976646599889,
        -0.0592810032146544,
        0.06228215236069213,
        0.003550385789530405,
        0.023686284372978175,
        0.0755628376105383,
        -0.027320085360951027,
        0.023289992946278797,
        -0.009121723860856832,
        -0.007017722759303295,
        0.00969084836570577,
        -0.0783246931785937,
        0.0,
        0.22285644460176096,
        0.0370205236553571,
        -0.04829406077870275,
        0.07261305345533159,
        0.19853745192513186,
        -0.013797972598005507,
        -0.059281003214654265,
        -0.015730611105158984,
        0.003007808004524073,
        0.07037607621406335,
        -0.04550259879030114,
        0.00192353288396196,
        0.12282922955378314,
        0.00781868794615703,
        -0.010431519170078844,
        0.020790697126972443,
        0.010124464713586728,
        0.0,
        0.004105905780695563,
        -0.0390216857244244,
        0.2705067362553392,
        0.033315293430390566,
        0.0801829925289205
      ],
      "intercept": 0.04887733138734607
    },
    {
      "seed": 29,
      "mode": "multistep_branch_utility_target_k1",
      "status": "ok",
      "target_field": "multistep_branch_utility_target",
      "training_rows": 82,
      "weights": [
        0.05131474922792711,
        0.19900477598154434,
        0.00555303713041152,
        -0.04865655152801735,
        0.03125374505863156,
        0.004464552921164121,
        0.0,
        -0.09653736231308875,
        0.003778604755388459,
        0.1271322628736366,
        0.0,
        0.0,
        0.0,
        0.009895412070264162,
        -0.03238616552879977,
        0.29554213829463266,
        -0.0006919684934027038,
        0.03734868273718961,
        -0.02705643040040117,
        -0.07035751889101155,
        0.051130703237271785,
        -0.017598765676397964,
        0.04958567012527313,
        0.09209764017648858,
        -0.0552768345973958,
        0.010458107966073322,
        0.004464552921163795,
        -0.008608785950423683,
        0.013677428580168915,
        -0.0517854506280559,
        0.0,
        0.1990047759815444,
        0.0399150135655991,
        -0.021296977837180403,
        0.04322278183607251,
        0.17707897198265152,
        -0.011301278697787045,
        -0.07035751889101163,
        0.05154056771068878,
        -0.0007190877737193644,
        0.09127101568163322,
        -0.0918060447052602,
        0.026282741900714175,
        0.07254654845614511,
        0.027511350051620642,
        3.9056516925021065e-05,
        0.03230191740793865,
        -0.006610437607367828,
        0.0,
        0.008572823477292248,
        -0.012424646907244001,
        0.19028651735486313,
        0.03371327427193442,
        0.08969759488128848
      ],
      "intercept": -0.01096150054572087
    },
    {
      "seed": 47,
      "mode": "multistep_branch_utility_target_k3",
      "status": "ok",
      "target_field": "multistep_branch_utility_target",
      "training_rows": 85,
      "weights": [
        0.07284860295292077,
        0.23215190546787304,
        0.021604297863756217,
        -0.017122063847873098,
        0.027985528256946064,
        -0.012922602182505525,
        0.0,
        -0.10970071468158873,
        0.0092096420382871,
        0.14524028592836755,
        0.0,
        0.0,
        0.0,
        0.061166220448300244,
        -0.08549743129145136,
        0.34185262014946227,
        -0.021900449362989342,
        0.0031047979673054105,
        -0.006537947185017252,
        -0.0862793774077079,
        0.05159293548837743,
        -0.02304309816921012,
        0.03241086883838963,
        0.06769594255376093,
        -0.06018421520006315,
        0.009795823095908313,
        -0.012922602182505282,
        -0.011603101182006817,
        0.013302543069723637,
        -0.11957190712947632,
        0.0,
        0.23215190546787287,
        0.03780350462673191,
        -0.043606102093388145,
        0.08569921690235262,
        0.19005879065890874,
        -0.01193958080934435,
        -0.08627937740770796,
        -0.025969731769863013,
        0.037437798989797585,
        0.0662757037068845,
        -0.05716078880217718,
        0.01697872983565559,
        0.08432949252912988,
        0.013637828042910475,
        -0.016744069793218404,
        0.030491553677554552,
        -0.017214653801096484,
        0.0,
        0.006004031146569444,
        -0.04726148158157686,
        0.26615798945714836,
        0.03391816324262793,
        0.10510128087126523
      ],
      "intercept": 0.1007589025472716
    },
    {
      "seed": 47,
      "mode": "multistep_branch_utility_target_k1",
      "status": "ok",
      "target_field": "multistep_branch_utility_target",
      "training_rows": 85,
      "weights": [
        0.05406134907389466,
        0.214327336387462,
        0.006524069534363875,
        -0.017874577080290076,
        0.027329904691226627,
        -2.7356430285281965e-06,
        0.0,
        -0.09072992928686884,
        0.007467354572202413,
        0.13267252619246858,
        0.0,
        0.0,
        0.0,
        0.014308235161655757,
        -0.05812647468148071,
        0.3050572656743307,
        0.006788113772518934,
        0.022823641735244156,
        -0.021655039726726263,
        -0.0974221611613086,
        0.04178880120575988,
        -0.025621403167876467,
        0.04086590847837411,
        0.07664888942751609,
        -0.05620219412618013,
        -0.005076218409640021,
        -2.7356430277027426e-06,
        -0.00715240140500339,
        0.010554396264873997,
        -0.09033338084846224,
        0.0,
        0.21432733638746146,
        0.04739424490051582,
        -0.00457260534074415,
        0.0688132941336927,
        0.1500866475945141,
        -0.008318958430071495,
        -0.09742216116130854,
        0.0680166765797056,
        0.028363380609452933,
        0.02579510674184276,
        -0.06456883948523004,
        0.03003687109040233,
        0.04810582398154863,
        0.029110353871154813,
        0.012194385603723603,
        0.01922557889817481,
        -0.024108437443386435,
        0.0,
        0.008546430059840519,
        -0.016157112043407387,
        0.19928928079969468,
        0.03851053191276358,
        0.099469141659342
      ],
      "intercept": 0.1041859452653009
    }
  ],
  "baseline_mode_reference": "canonical_pairwise_baseline"
}